<?xml version="1.0"?>
<opencv_storage>
<opencv_ml_svm>
  <format>3</format>
  <svmType>C_SVC</svmType>
  <kernel>
    <type>INTER</type>
    <gamma>1.0000000000000001e-05</gamma></kernel>
  <C>6.2500000000000000e+01</C>
  <term_criteria><epsilon>1.1920928955078125e-07</epsilon>
    <iterations>1000</iterations></term_criteria>
  <var_count>2</var_count>
  <class_count>2</class_count>
  <class_labels type_id="opencv-matrix">
    <rows>2</rows>
    <cols>1</cols>
    <dt>i</dt>
    <data>
      1 2</data></class_labels>
  <sv_total>19</sv_total>
  <support_vectors>
    <_>
      5.84453519e-05 2.10403278e-03</_>
    <_>
      0. 1.43472018e-04</_>
    <_>
      8.12677754e-05 8.28931294e-03</_>
    <_>
      0. 3.31998826e-03</_>
    <_>
      0. 7.40635255e-03</_>
    <_>
      3.03187803e-03 3.29175331e-02</_>
    <_>
      0. 8.38691660e-04</_>
    <_>
      0. 7.04798056e-03</_>
    <_>
      0. 2.40096040e-02</_>
    <_>
      0. 2.68101096e-02</_>
    <_>
      0. 1.75906178e-02</_>
    <_>
      0. 8.77078995e-03</_>
    <_>
      0. 1.48056606e-02</_>
    <_>
      0. 4.68258969e-02</_>
    <_>
      0. 7.28818728e-03</_>
    <_>
      0. 1.46518378e-02</_>
    <_>
      0. 1.17821470e-02</_>
    <_>
      0. 1.17307696e-02</_>
    <_>
      0. 1.98784191e-02</_></support_vectors>
  <decision_functions>
    <_>
      <sv_count>19</sv_count>
      <rho>-1.0000000427287552e+00</rho>
      <alpha>
        6.2500000000000000e+01 7.5572949618381801e-05
        6.2500000000000000e+01 6.2500000000000000e+01
        6.2500000000000000e+01 6.2500000000000000e+01
        2.6598104497223307e+01 6.2500000000000000e+01
        6.2500000000000000e+01 -6.2500000000000000e+01
        -5.8596922195286856e-06 -6.2500000000000000e+01
        -2.6598174323829674e+01 -2.3746675756193387e+01
        -6.2500000000000000e+01 -6.2500000000000000e+01
        -6.2500000000000000e+01 -6.2500000000000000e+01
        -3.8753324130457649e+01</alpha>
      <index>
        0 1 2 3 4 5 6 7 8 9 10 11 12 13 14 15 16 17 18</index></_></decision_functions></opencv_ml_svm>
</opencv_storage>
