<?xml version="1.0"?>
<opencv_storage>
<opencv_ml_svm>
  <format>3</format>
  <svmType>C_SVC</svmType>
  <kernel>
    <type>RBF</type>
    <gamma>5.0625000000000009e-01</gamma></kernel>
  <C>1.2500000000000000e+01</C>
  <term_criteria><epsilon>1.1920928955078125e-07</epsilon>
    <iterations>1000</iterations></term_criteria>
  <var_count>1</var_count>
  <class_count>2</class_count>
  <class_labels type_id="opencv-matrix">
    <rows>2</rows>
    <cols>1</cols>
    <dt>i</dt>
    <data>
      5 3</data></class_labels>
  <sv_total>282</sv_total>
  <support_vectors>
    <_>
      1.46551728e+00</_>
    <_>
      1.67272723e+00</_>
    <_>
      1.62500000e+00</_>
    <_>
      1.38095236e+00</_>
    <_>
      1.22881353e+00</_>
    <_>
      2.05882359e+00</_>
    <_>
      2.18279576e+00</_>
    <_>
      1.07476640e+00</_>
    <_>
      1.23809528e+00</_>
    <_>
      1.35849059e+00</_>
    <_>
      1.30555558e+00</_>
    <_>
      1.30136991e+00</_>
    <_>
      2.14736843e+00</_>
    <_>
      1.51020408e+00</_>
    <_>
      2.30769229e+00</_>
    <_>
      1.42857146e+00</_>
    <_>
      1.52542377e+00</_>
    <_>
      1.34831464e+00</_>
    <_>
      1.56097555e+00</_>
    <_>
      1.66666663e+00</_>
    <_>
      2.08080816e+00</_>
    <_>
      1.13846159e+00</_>
    <_>
      1.48484850e+00</_>
    <_>
      1.41346157e+00</_>
    <_>
      1.47222221e+00</_>
    <_>
      1.42016804e+00</_>
    <_>
      2.72222233e+00</_>
    <_>
      2.06122446e+00</_>
    <_>
      2.11827946e+00</_>
    <_>
      2.86206889e+00</_>
    <_>
      1.31868136e+00</_>
    <_>
      1.45569623e+00</_>
    <_>
      2.36666656e+00</_>
    <_>
      1.39682543e+00</_>
    <_>
      2.59649134e+00</_>
    <_>
      1.48333335e+00</_>
    <_>
      2.10810804e+00</_>
    <_>
      2.50847459e+00</_>
    <_>
      1.35211265e+00</_>
    <_>
      1.41860461e+00</_>
    <_>
      1.30147064e+00</_>
    <_>
      1.29565215e+00</_>
    <_>
      1.65263152e+00</_>
    <_>
      1.14705884e+00</_>
    <_>
      1.59223306e+00</_>
    <_>
      2.16666675e+00</_>
    <_>
      1.63793099e+00</_>
    <_>
      2.33333325e+00</_>
    <_>
      1.22580647e+00</_>
    <_>
      2.37313437e+00</_>
    <_>
      1.57627118e+00</_>
    <_>
      2.09523821e+00</_>
    <_>
      2.08333325e+00</_>
    <_>
      1.40136051e+00</_>
    <_>
      1.40909088e+00</_>
    <_>
      1.33928573e+00</_>
    <_>
      1.21951222e+00</_>
    <_>
      1.17857146e+00</_>
    <_>
      2.29545450e+00</_>
    <_>
      1.22000003e+00</_>
    <_>
      2.27027035e+00</_>
    <_>
      1.21348310e+00</_>
    <_>
      1.47368419e+00</_>
    <_>
      1.48979592e+00</_>
    <_>
      1.47619045e+00</_>
    <_>
      1.56818187e+00</_>
    <_>
      1.27397263e+00</_>
    <_>
      1.64285719e+00</_>
    <_>
      1.64285719e+00</_>
    <_>
      1.46666670e+00</_>
    <_>
      2.45161295e+00</_>
    <_>
      1.25000000e+00</_>
    <_>
      2.18055558e+00</_>
    <_>
      1.46153843e+00</_>
    <_>
      2.28048778e+00</_>
    <_>
      1.55208337e+00</_>
    <_>
      1.43589747e+00</_>
    <_>
      2.78082180e+00</_>
    <_>
      1.20634925e+00</_>
    <_>
      2.35999990e+00</_>
    <_>
      1.60000002e+00</_>
    <_>
      1.17187500e+00</_>
    <_>
      1.46774197e+00</_>
    <_>
      1.23943663e+00</_>
    <_>
      2.13513517e+00</_>
    <_>
      2.42857146e+00</_>
    <_>
      1.49180329e+00</_>
    <_>
      1.63703704e+00</_>
    <_>
      1.39655173e+00</_>
    <_>
      2.42465758e+00</_>
    <_>
      2.62686563e+00</_>
    <_>
      1.32203388e+00</_>
    <_>
      1.59574473e+00</_>
    <_>
      1.38666666e+00</_>
    <_>
      1.43209875e+00</_>
    <_>
      2.69696975e+00</_>
    <_>
      1.42105258e+00</_>
    <_>
      1.30136991e+00</_>
    <_>
      1.49056602e+00</_>
    <_>
      1.48958337e+00</_>
    <_>
      1.43689322e+00</_>
    <_>
      1.18750000e+00</_>
    <_>
      1.63414633e+00</_>
    <_>
      2.58730149e+00</_>
    <_>
      1.35789478e+00</_>
    <_>
      1.37634408e+00</_>
    <_>
      1.41758239e+00</_>
    <_>
      1.57377052e+00</_>
    <_>
      1.19642854e+00</_>
    <_>
      1.42307687e+00</_>
    <_>
      1.56250000e+00</_>
    <_>
      1.25966847e+00</_>
    <_>
      1.36170208e+00</_>
    <_>
      1.59375000e+00</_>
    <_>
      1.40449440e+00</_>
    <_>
      1.42696631e+00</_>
    <_>
      2.25000000e+00</_>
    <_>
      1.42696631e+00</_>
    <_>
      1.44318187e+00</_>
    <_>
      1.41111112e+00</_>
    <_>
      1.41573036e+00</_>
    <_>
      1.42222226e+00</_>
    <_>
      1.66292131e+00</_>
    <_>
      1.70909095e+00</_>
    <_>
      2.92156863e+00</_>
    <_>
      1.40217388e+00</_>
    <_>
      1.61797750e+00</_>
    <_>
      1.44230771e+00</_>
    <_>
      1.03448272e+00</_>
    <_>
      2.19117641e+00</_>
    <_>
      1.32291663e+00</_>
    <_>
      1.35416663e+00</_>
    <_>
      1.48314607e+00</_>
    <_>
      1.20779216e+00</_>
    <_>
      2.25373125e+00</_>
    <_>
      1.40659344e+00</_>
    <_>
      1.27067673e+00</_>
    <_>
      1.39999998e+00</_>
    <_>
      2.24074078e+00</_>
    <_>
      1.35483873e+00</_>
    <_>
      1.43333328e+00</_>
    <_>
      1.37903225e+00</_>
    <_>
      2.80952382e+00</_>
    <_>
      1.29069769e+00</_>
    <_>
      2.14634156e+00</_>
    <_>
      2.21276593e+00</_>
    <_>
      1.64285719e+00</_>
    <_>
      2.74285722e+00</_>
    <_>
      1.23655915e+00</_>
    <_>
      1.17857146e+00</_>
    <_>
      1.16666663e+00</_>
    <_>
      2.83999991e+00</_>
    <_>
      1.88571429e+00</_>
    <_>
      1.72277224e+00</_>
    <_>
      1.16129029e+00</_>
    <_>
      1.16666663e+00</_>
    <_>
      1.15384614e+00</_>
    <_>
      1.33333337e+00</_>
    <_>
      1.46666670e+00</_>
    <_>
      1.28125000e+00</_>
    <_>
      2.14864874e+00</_>
    <_>
      1.57142854e+00</_>
    <_>
      1.61481476e+00</_>
    <_>
      1.20000005e+00</_>
    <_>
      1.29787230e+00</_>
    <_>
      2.62745094e+00</_>
    <_>
      1.19047618e+00</_>
    <_>
      2.83333325e+00</_>
    <_>
      1.48648643e+00</_>
    <_>
      1.64285719e+00</_>
    <_>
      1.20000005e+00</_>
    <_>
      1.27586210e+00</_>
    <_>
      1.19047618e+00</_>
    <_>
      1.33333337e+00</_>
    <_>
      1.63636363e+00</_>
    <_>
      2.61111116e+00</_>
    <_>
      1.35897434e+00</_>
    <_>
      2.15384626e+00</_>
    <_>
      1.53125000e+00</_>
    <_>
      2.03333330e+00</_>
    <_>
      2.25423717e+00</_>
    <_>
      2.60377359e+00</_>
    <_>
      1.19354844e+00</_>
    <_>
      1.76315784e+00</_>
    <_>
      1.27906978e+00</_>
    <_>
      1.29032254e+00</_>
    <_>
      1.27027023e+00</_>
    <_>
      1.65671647e+00</_>
    <_>
      1.15789473e+00</_>
    <_>
      1.47368419e+00</_>
    <_>
      1.87179482e+00</_>
    <_>
      1.32432437e+00</_>
    <_>
      1.96153843e+00</_>
    <_>
      1.87179482e+00</_>
    <_>
      1.22727275e+00</_>
    <_>
      1.65384614e+00</_>
    <_>
      1.17647064e+00</_>
    <_>
      1.57831323e+00</_>
    <_>
      1.50000000e+00</_>
    <_>
      2.82222223e+00</_>
    <_>
      1.66666663e+00</_>
    <_>
      1.60606062e+00</_>
    <_>
      1.43478262e+00</_>
    <_>
      1.27999997e+00</_>
    <_>
      1.88732398e+00</_>
    <_>
      2.48275852e+00</_>
    <_>
      1.27619052e+00</_>
    <_>
      2.09375000e+00</_>
    <_>
      1.26666665e+00</_>
    <_>
      1.25714290e+00</_>
    <_>
      1.64285719e+00</_>
    <_>
      1.22222221e+00</_>
    <_>
      1.47674417e+00</_>
    <_>
      1.80487800e+00</_>
    <_>
      1.21212125e+00</_>
    <_>
      1.38095236e+00</_>
    <_>
      1.60317457e+00</_>
    <_>
      1.57471263e+00</_>
    <_>
      1.39436615e+00</_>
    <_>
      1.60000002e+00</_>
    <_>
      2.68181825e+00</_>
    <_>
      1.23529410e+00</_>
    <_>
      1.85416663e+00</_>
    <_>
      1.18750000e+00</_>
    <_>
      1.87179482e+00</_>
    <_>
      1.24347830e+00</_>
    <_>
      2.42105269e+00</_>
    <_>
      1.19230771e+00</_>
    <_>
      1.21739125e+00</_>
    <_>
      1.32432437e+00</_>
    <_>
      1.38095236e+00</_>
    <_>
      1.62616825e+00</_>
    <_>
      2.64788723e+00</_>
    <_>
      1.54838705e+00</_>
    <_>
      1.20689654e+00</_>
    <_>
      1.24137926e+00</_>
    <_>
      1.23809528e+00</_>
    <_>
      1.33333337e+00</_>
    <_>
      2.</_>
    <_>
      1.41379309e+00</_>
    <_>
      2.02631569e+00</_>
    <_>
      1.82926834e+00</_>
    <_>
      1.79518068e+00</_>
    <_>
      1.47826087e+00</_>
    <_>
      1.43362832e+00</_>
    <_>
      2.66666675e+00</_>
    <_>
      1.88372087e+00</_>
    <_>
      1.28925622e+00</_>
    <_>
      1.33333337e+00</_>
    <_>
      1.83132529e+00</_>
    <_>
      1.18518519e+00</_>
    <_>
      1.31578946e+00</_>
    <_>
      1.76744187e+00</_>
    <_>
      1.59124088e+00</_>
    <_>
      1.17391300e+00</_>
    <_>
      2.37500000e+00</_>
    <_>
      1.63043475e+00</_>
    <_>
      1.33333337e+00</_>
    <_>
      1.69565213e+00</_>
    <_>
      1.28205132e+00</_>
    <_>
      1.16129029e+00</_>
    <_>
      2.82352948e+00</_>
    <_>
      1.62500000e+00</_>
    <_>
      2.05999994e+00</_>
    <_>
      1.58000004e+00</_>
    <_>
      1.26666665e+00</_>
    <_>
      1.87179482e+00</_>
    <_>
      1.62068963e+00</_>
    <_>
      1.16216218e+00</_>
    <_>
      2.12765956e+00</_>
    <_>
      1.70731711e+00</_>
    <_>
      1.45833337e+00</_>
    <_>
      1.88888884e+00</_>
    <_>
      1.53061223e+00</_>
    <_>
      1.20855618e+00</_>
    <_>
      2.10344839e+00</_>
    <_>
      1.33333337e+00</_>
    <_>
      1.21875000e+00</_>
    <_>
      2.11111116e+00</_>
    <_>
      1.26923072e+00</_>
    <_>
      1.34920633e+00</_>
    <_>
      1.57377052e+00</_></support_vectors>
  <decision_functions>
    <_>
      <sv_count>282</sv_count>
      <rho>3.5644454680096791e+00</rho>
      <alpha>
        1.2500000000000000e+01 1.2500000000000000e+01
        1.2500000000000000e+01 1.2500000000000000e+01
        1.2500000000000000e+01 5.4839610003637196e+00
        1.2500000000000000e+01 1.2500000000000000e+01
        1.2500000000000000e+01 1.2500000000000000e+01
        1.2500000000000000e+01 1.2500000000000000e+01
        1.2500000000000000e+01 1.2500000000000000e+01
        1.2500000000000000e+01 1.2500000000000000e+01
        1.2500000000000000e+01 1.2500000000000000e+01
        1.2500000000000000e+01 2.6596344845683895e+00
        4.9103869212745330e+00 1.2500000000000000e+01
        1.2500000000000000e+01 1.2500000000000000e+01
        1.2500000000000000e+01 1.2500000000000000e+01
        1.2500000000000000e+01 1.1204341108256100e+01
        1.2500000000000000e+01 1.2500000000000000e+01
        1.2500000000000000e+01 1.2500000000000000e+01
        1.2500000000000000e+01 1.2500000000000000e+01
        1.2500000000000000e+01 1.2500000000000000e+01
        1.2500000000000000e+01 1.2500000000000000e+01
        1.2500000000000000e+01 1.2500000000000000e+01
        1.2500000000000000e+01 1.2500000000000000e+01
        1.2500000000000000e+01 1.2500000000000000e+01
        1.2500000000000000e+01 1.2500000000000000e+01
        1.2500000000000000e+01 1.2500000000000000e+01
        1.2500000000000000e+01 1.2500000000000000e+01
        1.2500000000000000e+01 6.6392761569489371e+00
        1.0425587184042445e+01 1.2500000000000000e+01
        1.2500000000000000e+01 1.2500000000000000e+01
        1.2500000000000000e+01 1.2500000000000000e+01
        1.2500000000000000e+01 1.2500000000000000e+01
        1.2500000000000000e+01 1.2500000000000000e+01
        1.2500000000000000e+01 1.2500000000000000e+01
        1.2500000000000000e+01 1.2500000000000000e+01
        1.2500000000000000e+01 1.2500000000000000e+01
        1.2500000000000000e+01 1.2500000000000000e+01
        1.2500000000000000e+01 1.2500000000000000e+01
        1.2500000000000000e+01 1.2500000000000000e+01
        1.2500000000000000e+01 1.2500000000000000e+01
        1.2500000000000000e+01 1.2500000000000000e+01
        1.2500000000000000e+01 1.2500000000000000e+01
        1.2500000000000000e+01 1.2500000000000000e+01
        1.2500000000000000e+01 1.2500000000000000e+01
        1.2500000000000000e+01 1.2500000000000000e+01
        1.2500000000000000e+01 1.2500000000000000e+01
        1.2500000000000000e+01 1.2500000000000000e+01
        1.2500000000000000e+01 1.2500000000000000e+01
        1.2500000000000000e+01 1.2500000000000000e+01
        1.2500000000000000e+01 1.2500000000000000e+01
        1.2500000000000000e+01 1.2500000000000000e+01
        1.2500000000000000e+01 1.2500000000000000e+01
        1.2500000000000000e+01 1.2500000000000000e+01
        1.2500000000000000e+01 1.2500000000000000e+01
        1.2500000000000000e+01 1.2500000000000000e+01
        1.2500000000000000e+01 1.2500000000000000e+01
        1.2500000000000000e+01 1.2500000000000000e+01
        1.2500000000000000e+01 1.2500000000000000e+01
        1.2500000000000000e+01 1.2500000000000000e+01
        1.2500000000000000e+01 1.2500000000000000e+01
        1.2500000000000000e+01 1.2500000000000000e+01
        1.2500000000000000e+01 1.2500000000000000e+01
        1.2500000000000000e+01 1.2500000000000000e+01
        1.2500000000000000e+01 1.1424993461063089e+00
        1.2500000000000000e+01 1.2500000000000000e+01
        1.2500000000000000e+01 1.2500000000000000e+01
        1.2500000000000000e+01 1.2500000000000000e+01
        1.2500000000000000e+01 1.2500000000000000e+01
        1.2500000000000000e+01 1.2500000000000000e+01
        1.2500000000000000e+01 1.2500000000000000e+01
        1.2500000000000000e+01 1.2500000000000000e+01
        1.2500000000000000e+01 1.2500000000000000e+01
        1.2500000000000000e+01 1.2500000000000000e+01
        -1.2500000000000000e+01 -1.2500000000000000e+01
        -1.2500000000000000e+01 -1.2500000000000000e+01
        -1.2500000000000000e+01 -1.2500000000000000e+01
        -1.2500000000000000e+01 -1.2500000000000000e+01
        -1.2500000000000000e+01 -9.3919380282165523e+00
        -1.2500000000000000e+01 -1.2500000000000000e+01
        -1.2500000000000000e+01 -1.2500000000000000e+01
        -5.4474914449797041e+00 -1.2500000000000000e+01
        -1.2500000000000000e+01 -1.2500000000000000e+01
        -1.2500000000000000e+01 -1.2500000000000000e+01
        -1.2500000000000000e+01 -1.2500000000000000e+01
        -1.2500000000000000e+01 -1.2500000000000000e+01
        -1.2500000000000000e+01 -1.2500000000000000e+01
        -1.2500000000000000e+01 -1.2500000000000000e+01
        -1.2500000000000000e+01 -1.2500000000000000e+01
        -1.2500000000000000e+01 -1.2500000000000000e+01
        -1.2500000000000000e+01 -1.2500000000000000e+01
        -1.2500000000000000e+01 -1.2500000000000000e+01
        -1.2500000000000000e+01 -1.2500000000000000e+01
        -1.2500000000000000e+01 -1.2500000000000000e+01
        -1.2500000000000000e+01 -1.2500000000000000e+01
        -1.2500000000000000e+01 -1.2500000000000000e+01
        -1.2500000000000000e+01 -1.2500000000000000e+01
        -1.2500000000000000e+01 -1.2500000000000000e+01
        -1.2500000000000000e+01 -1.2500000000000000e+01
        -1.2500000000000000e+01 -1.2500000000000000e+01
        -1.2500000000000000e+01 -1.2500000000000000e+01
        -1.2500000000000000e+01 -1.2500000000000000e+01
        -1.2500000000000000e+01 -1.2500000000000000e+01
        -1.2500000000000000e+01 -1.2500000000000000e+01
        -1.2500000000000000e+01 -1.2500000000000000e+01
        -1.2500000000000000e+01 -1.2500000000000000e+01
        -1.2500000000000000e+01 -1.2500000000000000e+01
        -1.2500000000000000e+01 -1.2500000000000000e+01
        -1.2500000000000000e+01 -1.2500000000000000e+01
        -1.2500000000000000e+01 -1.2500000000000000e+01
        -1.2500000000000000e+01 -1.2500000000000000e+01
        -1.2500000000000000e+01 -1.2500000000000000e+01
        -1.2500000000000000e+01 -1.2500000000000000e+01
        -1.2500000000000000e+01 -1.2500000000000000e+01
        -1.2500000000000000e+01 -1.2500000000000000e+01
        -1.2500000000000000e+01 -1.2500000000000000e+01
        -1.2500000000000000e+01 -1.2500000000000000e+01
        -1.2500000000000000e+01 -1.2500000000000000e+01
        -1.2500000000000000e+01 -1.2500000000000000e+01
        -1.2500000000000000e+01 -1.2500000000000000e+01
        -1.2500000000000000e+01 -1.2500000000000000e+01
        -1.2500000000000000e+01 -1.2500000000000000e+01
        -1.2500000000000000e+01 -1.2500000000000000e+01
        -1.2500000000000000e+01 -1.2500000000000000e+01
        -1.2500000000000000e+01 -1.2500000000000000e+01
        -1.2500000000000000e+01 -1.2500000000000000e+01
        -1.2500000000000000e+01 -1.2500000000000000e+01
        -1.2500000000000000e+01 -1.2500000000000000e+01
        -1.2500000000000000e+01 -1.2500000000000000e+01
        -1.2500000000000000e+01 -1.2500000000000000e+01
        -1.2500000000000000e+01 -1.2500000000000000e+01
        -1.2500000000000000e+01 -1.2500000000000000e+01
        -1.2500000000000000e+01 -1.2500000000000000e+01
        -2.6262567283641518e+00 -1.2500000000000000e+01
        -1.2500000000000000e+01 -1.2500000000000000e+01
        -1.2500000000000000e+01 -1.2500000000000000e+01
        -1.2500000000000000e+01 -1.2500000000000000e+01
        -1.2500000000000000e+01 -1.2500000000000000e+01
        -1.2500000000000000e+01 -1.2500000000000000e+01
        -1.2500000000000000e+01 -1.2500000000000000e+01
        -1.2500000000000000e+01 -1.2500000000000000e+01
        -1.2500000000000000e+01 -1.2500000000000000e+01
        -1.2500000000000000e+01 -1.2500000000000000e+01
        -1.2500000000000000e+01 -1.2500000000000000e+01</alpha>
      <index>
        0 1 2 3 4 5 6 7 8 9 10 11 12 13 14 15 16 17 18 19 20 21 22 23 24
        25 26 27 28 29 30 31 32 33 34 35 36 37 38 39 40 41 42 43 44 45
        46 47 48 49 50 51 52 53 54 55 56 57 58 59 60 61 62 63 64 65 66
        67 68 69 70 71 72 73 74 75 76 77 78 79 80 81 82 83 84 85 86 87
        88 89 90 91 92 93 94 95 96 97 98 99 100 101 102 103 104 105 106
        107 108 109 110 111 112 113 114 115 116 117 118 119 120 121 122
        123 124 125 126 127 128 129 130 131 132 133 134 135 136 137 138
        139 140 141 142 143 144 145 146 147 148 149 150 151 152 153 154
        155 156 157 158 159 160 161 162 163 164 165 166 167 168 169 170
        171 172 173 174 175 176 177 178 179 180 181 182 183 184 185 186
        187 188 189 190 191 192 193 194 195 196 197 198 199 200 201 202
        203 204 205 206 207 208 209 210 211 212 213 214 215 216 217 218
        219 220 221 222 223 224 225 226 227 228 229 230 231 232 233 234
        235 236 237 238 239 240 241 242 243 244 245 246 247 248 249 250
        251 252 253 254 255 256 257 258 259 260 261 262 263 264 265 266
        267 268 269 270 271 272 273 274 275 276 277 278 279 280 281</index></_></decision_functions></opencv_ml_svm>
</opencv_storage>
